-2.60161,1.45391,0.584798,-2.78594,-2.64089,-1.29997,1.01663,-1.8324,-1.63464,-0.368048,-3.26164,-0.440476,-2.10294,-0.934592,-2.89116,-1.80349,-2.14971,-0.801338,-2.42607,-1.95261,-3.01877,-1.03746,2.33814,1.41011,1.42205,-0.500344,-1.58032,0.442503,1.44031,-0.595911,-2.18627,-5.65831,-1.44752,1.4964,-1.28262,-0.815377,-0.487136,0.419598,-2.58261,0.805885,-3.10744,0.461125,0.485941,2.14711,-0.308318,-1.36152,-1.66812,-2.61493,-1.79525,-4.38062,-3.12562,-2.50739,-0.480885,1.23881,-0.966692,-1.98517,-2.42263,-2.8261,-4.50676,-4.01842,1.29939,0.400593,-0.474645,-1.64035,1.85468,-0.640799,-1.04539,-0.432871,-2.39494,1.03083,1.11961,-1.1005,4.92316,-2.34886,1.50667,-4.54139,0.142771,-0.548554,-1.68742,5.33536,1.01532,2.15154,0.659623,0.184026,2.1822,-2.34629,-1.62515,-0.869378,0.651475,1.65832,-1.49638,0.590958,-1.98414,0.222737,-4.27123,-1.34808,-1.53333,-1.64938,-1.6262,-1.80335,1.41831,-3.31243,-3.46279,-1.22046,0.496331,-3.75819,-4.51429,-0.69087,-0.347775,0.428011,3.20133,-1.23684,3.27789,0.406941,-0.886191,0.214131,0.653265,0.77161,3.44348,-0.441461,-1.31867,-0.655817,-0.581465,0.20839,-1.08147,2.31731,-0.420335,2.43683,-1.72828,0.652107,-2.01261,1.11254,-3.07996,-1.29263,-3.4008,-0.401169,-1.21248,-0.449395,-2.48208,-2.85807,-2.54074,-2.19484,-2.48967,-1.11768,-2.97791,-2.78392,-1.69218,-0.109908,-2.77237,-2.54265,-0.862672,0.0965241,-0.523172,0.696739,-0.868775,-1.26007,-1.80341,-1.96369,0.401299,0.20769,-0.545319,-0.236614,-0.981527,0.13153,1.00862,-1.76247,-0.728669,0.931019,0.391646,1.17773,-2.29276,-4.34074,0.055685,-1.32141,-1.00261,-5.21538,-1.76075,-1.69383,-3.40137,-1.48101,-1.22708,-1.4255,-0.0392794,-3.00799,-3.03839,-3.49598,-1.87167,-0.681464,-1.03378,-1.67504,-0.667871,-1.56813,-3.93867,-4.67928,-0.473411,-2.50815,1.69513,-2.96553,-4.26103,-2.54793,-1.5255,-2.25516,-4.15991,-0.547154,-1.19949,-1.84156,-2.13811,0.135632,-0.950716,-1.13396,-0.300664,1.59438,1.36076,-1.97177,-0.520625,-0.0681859,-1.00903,-2.4213,-2.61466,-2.01573,-2.50402,0.479106,-2.36713,-2.14346,-0.718969,-1.50363,-2.40298,-4.35043,-0.469146,-2.91798,-1.60294,-3.86878,-2.52606,-1.23755,-1.46563,-0.963542,-3.38077,-0.53477,-2.06673,-1.31773,-1.8524,-1.53537,-3.18144,-0.532551,-0.90738,-2.93246,0.0450676,-2.21224,-2.6694,-1.00661,-1.78477,-1.11968,-1.21053,-1.66696,-1.94262,-2.75503,-4.17331,-3.16433,-4.00454,-2.10078,-1.45869,-1.71423,-2.55912,-1.5862,-2.56777,-1.37703,-1.73514,-1.02585,-2.64268,0.331126,-2.58761,0.380872,-1.48961,-1.74293,-1.6008,0.205745,-1.59545,-1.05058,-0.0328018,-2.9115,0.740567,-1.95493,1.46169,1.54479,1.92682,2.40013,2.96424,-0.624587,-1.68565,-1.42327,-3.27044,-1.86624,-2.20331,-1.23187,-0.89454,-2.60818,-2.4275,-1.27139,-2.34402,-2.18024,0.982125,-0.526977,-0.154282,2.69568,-0.585694,0.690192,-1.64127,2.34237,-0.0335523,-2.55277,-4.06787,0.59,-1.33472,-1.04079,2.18746,2.00398,-1.7505,-1.24994,-0.860791,-1.09695,-0.619276,-2.99595,-3.64657,-1.27953,-1.28612,0.10268,-2.81122,0.498292,0.45945,0.119769,-3.05202,-2.85145,-0.722832,0.900875,-0.25905,-1.27479,-3.5951,-4.21462,-2.13747,0.108324,-2.15897,-2.4779,-1.90903,-3.90144,-3.50236,-2.20733,-2.88601,-5.49046,-5.00187,-5.8526,-4.52256,-1.43975,-1.79103,-1.44821,-0.495712,-2.16893,-1.56958,0.856187,-1.22321,1.61945,-2.22667,-2.68302,-0.185441,0.805568,-1.6775,1.42112,-0.73214,-2.14314,-1.23156,-1.33927,-1.61253,-0.560811,-0.129783,-1.49879,0.0951505,-0.939607,-2.87399,0.868982,0.898833,1.30009,-0.707163,-0.971078,-4.40305,-1.37195,-2.63916,-0.630854,-2.73049,-4.43209,-1.63747,-0.587934,-0.894407,-0.601047,-1.00294,1.08038,-1.32743,-1.86097,0.873933,-2.41373,-1.76686,0.401252,10.017,4.79181,-0.461093,-0.318888,-1.32872,-4.81552,-1.28739,-0.864605,-5.33003,-7.61845,5.58942,-2.67481,-2.03119,1.5744,-0.93667,2.45076,-0.838286,3.86992,1.59132,3.38389,7.12603,1.49076,0.901242,-1.59762,-1.50595,-0.742332,-3.09565,2.97826,1.55136,-3.39213,-0.206944,0.937704,2.73061,3.46857,9.10314,5.87257,2.73456,-2.09057,-0.0689337,1.66372,2.86014,0.286156,-0.428918,0.668442,3.99994,-1.46061,2.09954,2.74359,1.98008,1.49983,1.84744,-2.34569,3.68993,4.12721,-0.902352,-0.666476,3.72276,-0.0270588,7.60249,0.98863,5.00175,-4.22955,0.0114836,-2.12531,0.618612,3.34493,1.35484,-0.564608,-4.22216,-1.04686,0.688111,0.915347,-3.41581,-2.71352,3.46741,3.01539,0.587394,-2.59661,1.46688,1.87383,2.5788,1.6309,3.86323,-0.104286,-2.61045,-2.28331,0.311454,0.0224444,2.19988,4.29206,-0.717452,1.90451,-2.21882,-0.0477297,-2.66468,0.1562,-3.88277,-0.0855235,-2.19523,-1.99259,3.34155,-1.02213,6.64273,1.73704,-1.25075,1.58892,-2.96124,-1.26418,2.39581,-0.182164,-3.47669,-2.02585,0.014404,1.36807,1.22407,1.01599,4.36999,2.91292,-4.78983,3.57971,0.300958,-0.985393,1.10475,3.57107,2.89176,0.928033,-2.01686,-1.88059,1.32564,-0.065119,1.67476,4.81584,1.74348,-1.7521,-2.29471,1.49848,2.23145,-2.3906,-3.06488,-1.94794,1.75624,3.06531,3.38211,3.0102,2.34833,0.0983423,-0.989348,-2.10311,-2.82596,-1.31302,4.38504,-1.7811,11.8565,3.4732,-1.52172,-2.80427,-3.61063,1.93998,-0.944913,1.79768,1.35888,-2.49659,-4.08741,-1.81402,1.17724,-1.55413,-2.35785,0.412867,3.9086,4.60639,-5.07842,3.72406,-3.07423,2.00727,-2.29183,1.4701,-2.24955,2.14811,2.98103,-0.27066,-1.18204,-4.61143,-4.12118,-0.776513,1.07684,5.36344,5.59967,-2.10607,1.61219,-0.368163,3.5498,2.95941,3.54152,-0.774246,1.70355,-1.23425,-4.02468,0.380712,-0.0304015,-1.88837,1.34339,1.54205,3.86059,1.10399,-4.17773,2.1913,3.00827,3.27473,3.49725,-0.0445962,-1.70454,4.57048,3.30334,-2.93652,-1.28369,-0.553,4.9548,0.670537,7.59598,1.6238,0.427236,0.48346,-1.55631,2.93892,3.9479,-0.710403,-3.00936,3.73867,-3.05313,-1.94914,6.12014,2.58787,6.13891,-0.0765996,5.8824,-1.2357,2.1259,-0.641006,-1.80209,2.33649,0.913682,-0.821224,3.50492,-1.68939,7.86748,3.05669,-3.17986,0.996319,0.156296,-0.624578,0.950581,2.56877,1.2219,2.45461,-3.16452,-0.98035,1.78781,-0.881565,-2.53026,2.7536,-1.01364,-3.62946,-4.00967,1.50907,-0.0659891,1.53642,-3.40537,-1.16386,3.78066,-1.25892,1.08351,-1.67166,-0.930012,2.5163,2.76134,1.21871,-3.68418,-0.065885,3.24022,9.89668,3.40633,4.45508,1.86416,-3.12898,7.49996,3.04804,-5.06863,1.95561,-3.50756,1.14557,1.73791,-6.54332,5.3797,1.19499,0.72313,-3.28649,2.75138,6.66489,1.96227,-1.84806,4.01055,3.86652,1.82066,1.87484,-4.06394,-4.84158,-3.72036,-2.79984,-4.4962,-0.873671,-0.420599,1.74651,6.7815,2.84507,3.11851,4.63225,3.57311,-1.39534,-2.75293,-0.707319,-0.701079,2.18003,-0.719766,2.57895,-0.00863895,-0.280362,0.16014,-1.40515,-2.49485,2.59623,1.6244,-3.06741,4.82994,-0.0158285,-2.03713,-2.88009,2.3778,0.00161234,0.222925,-0.736331,1.87777,2.88097,3.67682,1.13824,1.60924,-1.09251,-1.15085,5.13334,2.77849,0.554902,0.9941,1.35224,-4.32202,2.99123,-1.55094,-1.30991,-0.386912,-0.853776,-1.23678,-1.07467,-0.0823277,-1.00158,4.43804,-2.13911,1.94548,2.49613,0.913427,0.871769,4.88958,-0.098979,1.86217,-0.255572,-2.726,6.29451,2.4297,-2.24356,4.42485,-0.761069,-0.0163925,-1.93212,-3.27415,-0.879399,0.449705,2.05203,1.70554,3.83734,3.85171,-3.57336,2.62463,-0.597248,3.92367,-5.18777,-2.42948,2.14955,7.22075,2.01018,0.153459,6.10683,2.7935,3.80743,-1.36826,-3.4842,0.804708,-2.42032,-3.54416,2.80666,0.62698,1.88427,-0.880746,4.99805,-0.864613,-1.16383,0.16544,-2.00768,4.25872,-1.60248,-1.65443,-5.58626,-4.74197,4.25805,1.07674,-4.3227,-2.55921,1.11907,4.24468,7.91916,-2.26154,3.78281,-2.51358,-0.825095,-4.1371,0.319378,-1.69181,-2.95403,-3.66353,6.62854,0.30226,4.63928,1.63163,6.99245,-3.37058,2.50412,6.91662,1.14127,-1.84727,2.96878,4.23216,-0.279548,-2.01297,-0.505313,-4.63683,-1.69803,0.670013,3.10285,-4.0674,3.6362,6.72689,-3.88638,-0.411613,-0.348649,1.34107,2.24628,6.90761,-1.27583,-1.07972,-3.62064,-0.126113,-3.06742,-1.93305,1.54266,2.21224,-0.476516,0.468402,-0.340899,-2.16915,-3.61985,0.274958,0.358601,-3.04779,2.41592,1.13046,-0.501802,-4.02346,-3.05479,1.25727,0.795712,8.50676,-0.766711,5.37963,-2.61436,1.4593,0.470536,-2.96342,5.3639,1.06796,0.0780085,-1.42184,-0.60557,2.18282,3.6735,2.2839,-1.43003,2.06127,2.58621,9.40531,3.29735,5.22498,6.48685,0.603527,-3.41852,0.0327799,2.55671,7.08001,-3.81252,0.589876,-0.887833,-3.72236,4.13222,3.29935,1.456,-0.378271,0.875033,7.31896,-0.505883,3.78321,-0.13475,2.08465,-2.72697,-0.614021,-0.900239,3.54562,1.66338,3.68949,-0.0895569,0.25271,0.732004,2.40182,3.80324,3.14251,1.79446,0.0560707,2.82789,-0.729734,-0.0128644,4.18527,-1.89501,2.76813,-1.07779,-1.01897,4.26449,2.18848,2.22432,3.21382,0.701382,1.04644,4.85179,0.321299,2.12221,1.33822,-3.0898,-2.28729,2.43268,0.498665,1.99312,-0.407564,2.62371,-1.13189,2.8201,1.32919,0.381105,1.8762,-0.728717,1.49555,-0.75338,-2.37619,0.237736,-2.51293,-0.847455,2.71219,2.37528,-1.13698,-2.11923,1.59195,-2.01041,-2.30596,1.06032,0.280808,-0.62321,2.48341,-0.2462,0.704897,-0.119913,-2.55022,-1.58156,-0.239034,0.850107,1.9212,1.68347,-2.1116,2.08969,5.65865